   -0.471924
    0.204102
  -0.0375977
  -0.0422363
    0.505127
  -0.0869141
    0.128418
    0.371582
    0.418457
   -0.138428
   -0.306152
   -0.010498
   -0.103027
    0.530762
   0.0895996
  -0.0869141
   -0.203369
  -0.0737305
  -0.0869141
   -0.130615
    0.095459
     -0.4104
   -0.278809
    0.341797
  -0.0588379
    0.498779
   -0.149658
   -0.179932
   0.0708008
   -0.515869
    0.123047
    0.300781
    0.141113
   0.0246582
      0.0625
    0.101318
   -0.447998
    0.124756
  -0.0131836
    0.262939
   -0.238281
   0.0612793
     0.60498
    0.434082
   -0.320557
   -0.442139
     0.26709
    0.036377
    0.198975
    -0.15918
    0.015625
    0.248779
   -0.345947
    0.315918
    0.253662
   -0.212158
    0.186768
   -0.185303
   0.0703125
   -0.162842
   0.0803223
    0.261963
    0.222656
   -0.373047
   -0.407471
   -0.123535
   0.0710449
    0.097168
    0.452637
 -0.00463867
  -0.0898438
   -0.308838
    0.117676
    0.172607
   -0.727783
    -0.28833
     0.22998
    0.468506
   -0.076416
   -0.201416
   -0.258545
   0.0483398
-0.000244141
   -0.151367
    0.239258
    -0.35376
  -0.0300293
   -0.110596
   -0.332031
    0.120361
  -0.0700684
    0.312744
   -0.136475
    -0.40625
   -0.315186
    0.461914
    -0.44458
    0.363281
   -0.239746
 -0.00463867
    0.325195
   -0.147217
    0.036377
  0.00512695
    0.142578
    0.243896
    -0.29541
   -0.345459
  -0.0649414
    0.293213
    0.235107
   -0.114014
  -0.0505371
    -0.26123
   -0.239746
    -0.16626
    0.111328
    -0.40918
   -0.348389
  -0.0859375
   -0.389648
    0.225586
    0.186279
    0.181641
   -0.259766
   -0.253906
    -0.28125
    0.182373
    0.329346
   -0.290039
   0.0273438
  -0.0412598
   -0.445312
    0.211914
   -0.052002
 -0.00610352
   -0.282959
   -0.258057
    0.242676
    0.221191
   -0.081543
     -0.5896
  -0.0239258
      0.2146
  -0.0952148
    0.122803
    0.203369
    0.219238
   -0.231689
    0.195312
    0.439209
  -0.0424805
    0.258301
   -0.163818
    0.260742
   -0.257568
   0.0219727
    0.369873
    0.101807
   -0.415283
   -0.199707
   -0.145752
   0.0185547
  -0.0639648
    0.226807
   -0.145752
    0.200684
  -0.0402832
    0.336914
   -0.167236
   -0.522217
   -0.363037
  -0.0368652
    0.436035
   -0.161133
   0.0742188
   -0.210205
    0.227539
   -0.170166
   -0.224609
   0.0515137
   0.0273438
   0.0224609
   -0.110352
    -0.39917
    0.147949
   -0.212402
   0.0856934
    -0.17041
   -0.198975
   0.0490723
   0.0236816
   0.0163574
   -0.198975
     0.11499
   0.0437012
   -0.133789
  0.00415039
  -0.0588379
    0.032959
   -0.261963
   -0.214355
    0.270752
    0.478027
 -0.00585938
   -0.266846
   0.0739746
    0.302002
   0.0803223
  -0.0688477
   0.0358887
  0.00366211
   -0.243408
   0.0686035
    0.109375
     0.22168
    0.458496
   -0.197998
    0.074707
  -0.0993652
  -0.0483398
   -0.120605
   0.0249023
    -0.17749
     0.24585
   -0.149902
    0.291016
  0.00585938
   -0.276123
   0.0998535
   -0.137207
    0.156494
  -0.0825195
    0.140381
   0.0754395
    0.144043
  -0.0927734
   -0.431396
   0.0256348
    0.191406
    0.168701
  -0.0646973
    0.186523
    0.168213
   0.0720215
    0.121582
    0.112793
  0.00366211
    0.402344
  -0.0180664
   -0.121582
   -0.026123
   -0.104736
    0.234863
    0.167969
   -0.290771
    0.162842
   -0.403564
  -0.0463867
  -0.0510254
    -0.36377
    0.214355
   0.0786133
   -0.300049
   -0.274414
   0.0703125
   0.0310059
   -0.193848
     0.26709
   -0.356934
 -0.00708008
    0.119141
    0.284424
   0.0444336
    0.240479
   -0.072998
    0.327148
    0.192871
    0.324463
   -0.100098
    0.485352
   -0.404541
  -0.0688477
    0.344238
    0.446777
    0.200195
    0.231934
   -0.159668
    -0.21582
    0.211426
   -0.219238
   -0.111328
     0.14917
    0.120605
   0.0185547
   -0.230713
    0.240967
   0.0456543
  -0.0725098
    -0.42334
  -0.0915527
    0.430664
   0.0935059
   -0.214844
   0.0551758
  -0.0249023
   -0.124023
   -0.223389
    0.156738
  -0.0637207
  -0.0532227
   -0.173584
   -0.241211
     0.24707
    0.167969
   0.0627441
   -0.261475
   -0.144775
   0.0151367
   0.0253906
   -0.064209
    0.220215
    0.101562
  -0.0175781
  -0.0153809
   0.0800781
  -0.0461426
    0.269531
  -0.0168457
    0.109375
    0.525146
   0.0297852
  -0.0141602
   -0.103027
    0.218262
    0.695557
   -0.114746
   -0.199219
  -0.0974121
    0.187012
    0.125732
   -0.101562
   0.0915527
    -0.14917
   0.0456543
  -0.0808105
    -0.27124
   -0.546875
    0.253174
     0.12085
    0.451172
   -0.313965
   0.0339355
   -0.176758
    0.389404
    0.208008
   -0.354736
    0.289795
  -0.0703125
   0.0231934
    0.095459
  -0.0012207
    0.556152
    0.149658
    0.253418
   -0.177246
    0.034668
    0.289795
   -0.121582
   0.0222168
   -0.114502
   0.0192871
    0.285156
     0.23999
    0.323242
   -0.148438
    0.603271
   -0.143799
    0.226807
   -0.104492
   -0.057373
  -0.0500488
    0.399658
   -0.317139
   -0.103271
   -0.097168
   -0.200928
   -0.106201
    0.306885
   -0.209961
    0.048584
   0.0690918
    0.230225
   -0.135986
  -0.0998535
   -0.236084
    -0.11499
    0.469971
  -0.0986328
    0.158936
   -0.102295
   0.0541992
     0.10498
   -0.298828
   -0.124268
    0.020752
   0.0112305
   0.0490723
   -0.361084
    0.200195
  -0.0893555
    0.150879
  0.00292969
   0.0454102
   -0.032959
    0.118164
     0.27417
    -0.78418
   0.0812988
    0.171143
   -0.419678
    0.249268
   -0.269531
   -0.685547
   -0.414307
    0.432861
   0.0893555
  -0.0244141
    0.412842
   -0.603516
 -0.00952148
   -0.048584
    0.241211
    0.041748
    0.268311
     0.25293
    0.121094
    0.579346
    0.668945
   -0.133789
    0.192627
   -0.616211
   0.0437012
    0.460205
  -0.0979004
    0.493408
   0.0549316
   -0.322754
  -0.0932617
   -0.156982
    0.155273
  -0.0395508
    0.118652
  -0.0222168
    0.109375
   -0.266113
    0.316162
    0.125732
   -0.221924
   -0.455566
    0.166504
    0.397949
   -0.112061
  -0.0517578
  -0.0869141
  -0.0175781
    0.104004
   -0.219971
     0.26001
   -0.172852
  -0.0344238
    0.110596
   -0.155518
    0.180908
   -0.155029
     0.36499
  -0.0512695
   0.0441895
   -0.161377
     0.17334
    0.202881
  -0.0869141
    0.120605
    0.164551
  -0.0375977
  -0.0515137
  -0.0664062
    0.300781
   -0.118896
   -0.101562
    0.291016
    0.502197
   -0.190186
  -0.0527344
   -0.196777
    0.141113
-0.000732422
  -0.0456543
  0.00195312
  -0.0627441
   0.0510254
    0.101318
  -0.0812988
    0.256104
      0.2771
   0.0168457
  -0.0771484
   -0.255371
    0.158691
   -0.234375
    0.036377
   0.0646973
   -0.173096
   0.0332031
    0.133789
   0.0449219
   0.0605469
    0.218262
   -0.198486
   -0.124023
    0.237061
   0.0397949
   -0.422119
   -0.272949
    0.171631
    0.258545
    0.260742
   -0.355225
    0.100098
   -0.046875
   -0.249512
   -0.128418
    0.216797
   0.0637207
    0.116455
  -0.0742188
  -0.0300293
   0.0410156
  -0.0805664
    0.266357
   -0.164795
   0.0622559
   -0.177979
    0.180664
    0.109619
    0.137451
   -0.148438
  -0.0493164
   0.0429688
   0.0812988
    0.157959
    0.296875
   -0.118164
  -0.0148926
    0.189941
    0.385254
   -0.228516
   -0.407227
   -0.179932
    0.215332
   -0.178467
    0.106201
    0.255127
    0.201416
   -0.164062
   0.0656738
  -0.0966797
  -0.0229492
    0.200195
  -0.0703125
   0.0161133
   -0.215576
   0.0673828
   0.0578613
    0.015625
   -0.112793
     0.20459
   0.0505371
    0.109131
    0.210693
   -0.375977
   -0.129395
 -0.00244141
    0.105469
    0.120117
   0.0673828
   0.0544434
    0.573242
 -0.00512695
   -0.395508
   -0.215088
     0.26709
   -0.046875
    0.100098
    0.225586
  -0.0639648
   0.0910645
   0.0549316
    0.171143
  -0.0915527
    0.226562
   -0.128174
   -0.232178
    -0.30542
     0.12915
   0.0761719
     0.32959
   -0.165771
   -0.164307
    0.192383
     0.21582
    -0.11792
    0.142334
   0.0939941
   -0.216797
 -0.00415039
      0.3125
    0.325684
   -0.304932
   -0.571533
    0.197266
    0.540283
    0.353027
   -0.433838
   0.0390625
    -0.24292
   -0.338623
  -0.0541992
    0.249512
     -0.2771
   -0.164795
    -0.09375
   -0.374512
    0.189453
  -0.0925293
   0.0656738
   -0.101807
  -0.0976562
   -0.319092
   0.0559082
   -0.226562
 0.000976562
    0.157471
   -0.162109
     0.21582
  -0.0524902
    -0.13501
   -0.127686
  -0.0839844
    0.121826
   -0.153076
   -0.608154
   0.0837402
    0.166504
   -0.117188
   -0.088623
  -0.0234375
  -0.0637207
   -0.253662
   -0.126953
   -0.122314
  -0.0268555
    0.149902
   -0.210938
   -0.263916
   -0.057373
     0.18335
  0.00219727
  -0.0612793
   -0.215576
   -0.268311
   0.0925293
    -0.48999
    0.292969
   -0.281982
   -0.200195
     0.51001
   -0.338135
   0.0576172
   0.0527344
    0.235596
   0.0563965
   -0.591064
  -0.0209961
   -0.208984
    0.747314
   -0.365234
   -0.166016
   -0.330811
  -0.0449219
   -0.161865
   -0.464844
    0.111816
   -0.371094
     -0.2771
 -0.00415039
   -0.117676
    0.121338
  -0.0415039
   -0.106445
  -0.0678711
   -0.393555
    0.012207
    0.208252
   -0.184814
    0.168701
   -0.270996
   -0.142822
    0.576904
   -0.257568
    0.202881
   -0.137451
    0.328369
   0.0144043
   -0.484863
  -0.0212402
  -0.0683594
    0.495361
   -0.297119
  -0.0551758
   -0.231201
    0.120605
  -0.0771484
   -0.188965
    0.346436
    -0.48584
   -0.204834
  -0.0559082
   -0.412354
    0.246094
   -0.140625
    0.147217
   -0.324463
   -0.210938
   -0.258545
    0.194336
    0.246338
  -0.0678711
   0.0949707
   0.0583496
   -0.255127
   0.0185547
    0.017334
  -0.0568848
   -0.285889
    0.112549
    0.457031
    0.341797
    -0.15625
    -0.24585
   0.0305176
  -0.0441895
   -0.012207
   -0.178955
   0.0341797
    0.203369
   0.0422363
 -0.00952148
    0.151611
  -0.0805664
    0.358398
   0.0256348
  -0.0415039
   -0.189209
  -0.0908203
    0.107178
   0.0134277
  -0.0185547
    0.133789
      0.1604
   0.0588379
    0.111816
  -0.0986328
    0.106201
   -0.137207
    0.172363
  -0.0427246
    0.158203
    0.236816
    0.380371
    0.133545
   -0.244629
    0.090332
    0.421631
    0.147705
   -0.143311
   -0.129395
    0.202148
   0.0620117
  -0.0561523
  0.00512695
   -0.120361
    0.176514
   0.0913086
   -0.168945
   -0.102783
   0.0114746
   -0.194092
   0.0803223
  -0.0532227
    0.128906
   0.0249023
   0.0979004
    0.105957
   -0.372803
   -0.166748
   0.0366211
    0.121338
   -0.272461
   -0.342285
    0.856445
   0.0522461
  -0.0297852
   -0.485596
   0.0283203
   0.0300293
   0.0090332
    0.130615
  -0.0593262
   0.0947266
   -0.480225
    0.165771
  -0.0629883
    0.029541
    0.117188
    -0.22583
  -0.0161133
   -0.240479
    0.275635
    0.233643
    0.124023
   -0.244385
   -0.246094
    0.209473
   -0.101807
   0.0583496
    0.300537
   -0.225098
    0.233643
  -0.0415039
    0.202637
   0.0412598
  -0.0644531
  -0.0529785
  -0.0209961
    0.417236
  -0.0883789
  -0.0146484
   0.0258789
  -0.0371094
    0.107422
  -0.0478516
   -0.138672
  -0.0253906
  -0.0878906
   -0.219482
   -0.185059
    0.108154
   -0.147949
   -0.213135
   -0.203369
   -0.207764
  -0.0527344
    0.373779
   0.0913086
   0.0200195
    0.100586
   -0.221924
    0.188477
   -0.034668
   -0.105225
  -0.0998535
   0.0432129
     0.12207
   0.0253906
   -0.510742
   0.0202637
    0.196777
  -0.0402832
   0.0690918
   -0.148926
  -0.0991211
   0.0969238
   -0.088623
   -0.127686
    0.133057
    0.150146
   -0.132812
   -0.274658
   0.0012207
  0.00244141
  -0.0134277
    0.186523
    0.181885
  -0.0158691
   -0.172119
    0.371582
   -0.240967
    0.225098
    0.111572
   -0.268799
    0.159424
   0.0876465
    0.275635
    0.043457
    0.118652
   -0.036377
    0.490967
    0.137939
   -0.168457
   -0.114502
     0.24292
  -0.0358887
  -0.0473633
    -0.22168
  -0.0334473
    0.144043
   0.0905762
 -0.00341797
    0.142822
    0.262695
   -0.258301
   -0.389893
   0.0598145
    0.398438
    0.092041
    0.323975
    -0.36084
   -0.350342
    0.402832
    -0.16333
   -0.048584
    0.281982
   -0.170166
    0.196289
    0.101562
    0.193359
   0.0236816
   -0.133057
   -0.104492
   -0.193115
    0.453857
   -0.142334
  -0.0856934
   -0.157959
    0.249023
   -0.059082
     -0.2771
    0.133057
   -0.193115
   -0.326416
  -0.0488281
  -0.0791016
    0.410889
     -0.2146
   -0.119385
   0.0341797
    -0.13623
  -0.0483398
    0.227783
    0.111328
     0.11377
    0.239746
   0.0864258
    0.020752
   0.0656738
   0.0871582
    0.137695
   0.0065918
  -0.0166016
    0.238525
    0.624756
   -0.171631
   -0.130859
   0.0961914
    0.248291
  -0.0664062
    0.110352
   -0.140625
    0.102783
  -0.0283203
    0.179199
    0.129639
    0.217773
     0.21875
  -0.0134277
  -0.0944824
    -0.26709
   0.0712891
  -0.0979004
  -0.0600586
   -0.166992
    0.427002
     -0.7771
    0.140137
      0.4375
   -0.400635
    0.413574
   -0.190186
   -0.433838
   -0.115967
    0.207031
   0.0131836
   -0.226318
    0.316895
   -0.310059
  -0.0146484
   -0.081543
    0.151611
   0.0561523
    0.324463
     0.28125
    0.118896
    0.590088
    0.317627
   -0.177002
    0.164062
   -0.254639
    0.410156
     0.27832
    -0.35498
    0.416748
  -0.0561523
    -0.41748