70
-966
1357
1234
-224
1190
-1382
-1196
-258
886
-2517
-1710
1983
1197
69
23
514
71
-951
49
1007
1269
2676
-411
-1360
-241
362
-259
-1089
2434
90
-2027
-805
709
1004
140
721
385
206
-281
1951
112
756
-481
-297
1108
79
1809
471
-503
-543
-67
1262
-268
-29
-509
1029
1255
-651
61
1988
-761
699
-71
471
187
-212
84
-343
2024
120
-604
1191
68
-645
-2147
1442
-35
1280
485
469
-391
781
-255
711
1024
-260
-430
1527
-6
-1377
705
1967
1575
923
-259
-1600
647
-407
240
-154
335
362
-250
1342
369
-692
-749
547
204
921
-607
649
637
520
-772
186
-526
-1424
265
113
585
-1337
916
359
-424
13
629
1295
-729
704
438
-338
2280
-1211
-385
-64
746
-1034
-1777
1783
309
572
682
-41
-272
-1022
119
2231
1966
2243
-1846
-1207
65
-362
646
-670
1866
316
-1216
-135
129
195
274
-559
1852
-583
-135
899
-309
-362
-1558
1500
942
1928
-862
759
212
-44
-172
451
775
437
-838
13
-367
-1861
1363
2430
1311
-391
-794
-842
313
627
-443
265
1288
-218
-467
915
-810
-620
-1795
807
-695
-465
921
1154
232
587
-761
356
1314
1
76
1107
-137
-1472
789
1896
1775
537
59
-1346
638
34
-1330
685
-596
1087
-760
1983
-523
-1726
-960
785
1455
540
-815
519
521
1814
-374
343
-1119
-751
-418
520
-303
-1382
1422
1995
117
789
1021
929
-2338
1183
696
-1478
1762
-306
-219
111
-1325
1554
-994
1600
-1021
-579
763
-676
1002
919
185
-511
1373
3326
-85
910
-2748
943
86
1219
2271
483
-1684
177
-475
176
77
-582
1580
-357
-1062
1511
-343
-1676
-2792
1408
-402
1176
570
375
137
389
195
715
930
-718
397
-164
-563
-1969
1045
1737
2379
1082
21
832
-4830
1369
3226
-1042
1870
-2360
-3255
-1352
2787
336
-3158
4046
203
962
-1444
189
-443
-656
920
1513
2240
4608
-1240
29
-3056
800
1560
-1864
2259
-1466
-1950
1304
-5022
77
2372
-892
3356
-1476
-4051
-1144
2887
-754
-3487
5619
-52
700
-2421
1238
-329
242
278
4018
2753
4918
-1917
169
-3296
-147
2400
-1898
5456
-1946
-2208
-1128
119
-1017
-155
817
557
296
-1245
1613
-176
-1890
-1949
347
587
-773
-232
94
1069
406
-387
424
-374
388
388
-569
142
-824
1000
2417
383
8
1295
1196
-1443
271
835
-1137
3955
-1806
-1678
-659
1272
-1515
-2141
2966
-632
1070
-497
576
-1516
-482
614
2667
3284
2828
-2083
-176
-1621
1528
149
-1527
3390
-611
-3357
-351
-500
-395
-857
280
1183
-458
-725
1180
-832
-714
-3462
1200
161
142
627
1105
379
682
229
-99
-41
-241
-359
119
-379
-995
1506
1981
2648
395
-13
-361
-944
12
-255
-808
1316
376
-1324
2233
-481
-748
-2342
948
-391
1192
-1163
1109
-277
1251
-169
396
224
759
-528
648
-1178
-1833
1811
1478
1159
694
256
-1113
651
271
66
68
933
226
-1388
994
-77
-696
-3046
1612
165
1130
-1105
1557
-57
-342
-771
666
797
18
-302
-427
367
245
362
1196
1382
-517
-287
-236
-1197
-79
-360
492
1552
53
-1207
922
-1157
-845
-2265
550
-823
-397
188
667
225
1036
-925
-10
423
1266
548
488
-343
-1458
617
1378
2481
585
-903
-572
-615
45
-705
409
784
283
-22
1295
-1127
-695
-833
290
-416
-544
382
855
-165
650
-961
1157
-287
695
708
764
-1268
-2032
1588
1268
520
612
438
-406
-369
210
-472
261
766
337
-163
1332
-866
-712
-2332
1611
-384
513
674
439
633
89
304
672
368
1336
-761
1113
-194
-1534
559
1146
2157
121
-1341
-1163
-531
686
131
878
1007
-105
-1019
798
-105
-2129
-2058
1424
715
1294
-101
772
44
550
-263
278
-146
604
-439
-1388
-659
-1014
1199
683
731
-383
-456
-208
930
-1352
-1734
564
460
74
-360
1098
211
-723
-1079
904
747
876
871
292
-137
510
-814
299
-83
-362
-55
-107
1039
-1403
-654
1910
1050
598
-356
259
1929
-432
-740
455
685
83
473
785
-354
564
-247
-289
277
1063
820
1219
-988
-1695
1009
301
-426
-431
-300
-770
875
-753
-465
678
-334
477
48
-217
-455
554
568
-729
1511
642
-386
947
-460
-1062
-2384
1402
-953
1436
-256
1125
-90
776
820
1794
1508
173
-102
295
-416
-709
1180
2063
2689
-133
-750
1402
-972
2368
1003
-401
1039
518
-1267
1204
788
602
46
1955
-998
278
451
1407
-828
724
-341
2128
1384
1931
-142
2302
-1473
-1515
746
1020
942
1165
-530
541
1192
1495
954
-259
1289
-763
338
1016
689
-736
-1060
808
275
1385
526
41
-1095
-871
755
1335
122
-188
53
-556
588
-245
-26
1088
312
-343
-728
1135
-125
866
922
-2111
1864
-351
-268
-948
181
2158
-71
680
-2032
740
668
1143
356
-402
898
2043
268
1738
-366
1112
-1548
79
-335
302
-1
1088
-1936
-1332
-826
98
430
1289
395
466
-220
1218
-793
-1934
-1627
562
641
330
-2084
240
-217
165
-536
-450
554
259
85
-2207
440
-39
1412
-65
397
-605
457
853
-641
1752
1006
-1385
800
98
1830
-660
-1274
407
613
-1065
-1838
663
971
1181
-146
331
1076
1348
558
353
971
938
-830
-829
-1557
1322
-730
578
-1256
-1729
973
-1615
-2200
1441
-443
1195
-667
594
-1013
1187
872
-209
1271
-148
-1157
1299
-414
-178
-495
-530
-1040
-1487
133
-993
826
-824
455
643
452
-1019
2018
-477
-680
1416
-62
-1004
2059
854
78
1751
279
-105
-1855
253
-145
244
-639
1593
-140
934
338
870
1308
695
378
596
-1014
-1891
1605
1120
1052
626
-137
-995
-180
111
-448
893
123
-1329
-239
-136
244
-1751
-1842
583
1955
-716
-421
-493
445
-234
735
-741
920
1209
-289
-2254
784
742
-746
-1458
1811
141
-310