-456
-396
-789
-1441
78
-766
1086
958
1198
82
1528
-2123
615
2020
2232
900
-433
120
232
-309
76
-832
1645
344
1627
1110
-567
-2104
1788
2216
1367
1255
-896
1246
490
406
-697
-1104
1187
818
-2410
-48
-574
-226
716
-13
-1469
-925
-411
1698
1361
361
-432
-1066
1108
566
-1005
928
-456
-101
1791
-627
-1257
-23
-426
268
-1610
-860
-451
-1181
2096
370
750
71
712
-1851
1706
2369
1630
708
-135
47
-487
-898
415
1026
-1147
315
-1538
-1247
160
-735
1648
-457
276
1395
-33
115
500
-138
69
-39
-263
80
-1035
243
9
774
688
254
-892
-684
922
-199
373
-140
-217
595
931
-428
664
-353
285
98
165
285
1166
681
-84
-173
-688
-1685
-560
-453
1369
-549
2701
1267
667
-1149
-283
3114
1823
1933
396
805
1180
670
134
714
911
-365
-1958
-107
-916
-444
1452
-1200
-203
-225
-348
-380
-1752
-1415
-965
-1507
1845
752
1368
316
607
-858
479
1529
1184
1063
-248
-2932
-2342
-753
437
564
195
493
1258
-2905
286
2542
-3392
-35
323
117
136
-1320
-289
-506
985
1286
-232
377
-266
-1276
-147
1543
505
835
1150
360
-1383
-572
56
376
-1970
-1843
2807
1152
1662
1595
1014
-2359
1164
2667
1988
119
-1125
-674
569
-89
-971
225
757
1247
-596
-1606
678
853
-688
363
-241
-780
248
565
546
762
129
147
829
-369
-785
-250
-126
994
-589
-513
-489
-212
-627
-1599
-448
1124
-62
210
491
797
-84
-2315
1586
945
-1578
-594
-670
-980
261
-886
584
1074
114
-43
1150
-425
-104
-744
725
804
-437
-190
651
-807
500
405
1425
1485
-377
-130
61
-358
-1327
7
-487
-979
1122
488
593
-1243
-999
739
-757
297
-481
-781
731
1328
112
-808
-106
6
1206
909
816
-19
-130
455
16
174
186
449
-302
-132
-1662
-400
-874
473
49
-785
-531
-430
-159
-372
-911
-1283
-274
-96
1555
46
921
669
-92
-1662
1777
1519
2235
1907
859
620
-1327
-602
-74
812
1338
-790
1259
599
-793
-1305
2536
2082
2510
1606
732
-1098
-51
-178
209
-158
654
-743
-1313
-839
-70
921
43
-1250
-1037
-443
1568
-1253
130
420
1104
356
-763
-1350
854
-574
-905
-53
594
1233
779
-36
-867
289
-532
-665
-119
220
689
1160
1254
-579
-364
-1566
2087
1206
1477
170
20
2353
2682
353
-538
-399
507
-533
-2787
1175
-1339
-826
1464
-2
-1574
-1380
-536
-1497
-450
-451
1049
48
664
167
196
-925
1064
-24
-1883
99
277
306
30
2085
2649
1794
233
-775
-198
-1458
-3396
1132
-581
125
1286
77
-1248
-1933
702
-1219
-3495
-2753
1447
1155
-1275
-271
3085
-750
921
603
-617
2184
2696
2910
713
30
1594
40
707
75
-133
-1427
-380
398
-253
338
214
-274
-793
-685
233
787
-2035
-2038
894
899
-1048
-403
-200
183
-1153
277
655
1009
1841
2364